<?xml version="1.0"?>
<opencv_storage>
<cascade>
  <stageType>BOOST</stageType>
  <featureType>HAAR</featureType>
  <height>43</height>
  <width>49</width>
  <stageParams>
    <boostType>GAB</boostType>
    <minHitRate>9.9500000476837158e-01</minHitRate>
    <maxFalseAlarm>5.0000000000000000e-01</maxFalseAlarm>
    <weightTrimRate>9.4999998807907104e-01</weightTrimRate>
    <maxDepth>1</maxDepth>
    <maxWeakCount>100</maxWeakCount></stageParams>
  <featureParams>
    <maxCatCount>0</maxCatCount>
    <featSize>1</featSize>
    <mode>BASIC</mode></featureParams>
  <stageNum>6</stageNum>
  <stages>
    <!-- stage 0 -->
    <_>
      <maxWeakCount>2</maxWeakCount>
      <stageThreshold>-4.7540999948978424e-02</stageThreshold>
      <weakClassifiers>
        <_>
          <internalNodes>
            0 -1 4 8.5499890148639679e-02</internalNodes>
          <leafValues>
            -9.8666667938232422e-01 9.3220341205596924e-01</leafValues></_>
        <_>
          <internalNodes>
            0 -1 2 -2.4092752486467361e-02</internalNodes>
          <leafValues>
            9.4551283121109009e-01 -9.7974437475204468e-01</leafValues></_></weakClassifiers></_>
    <!-- stage 1 -->
    <_>
      <maxWeakCount>2</maxWeakCount>
      <stageThreshold>-1.1121349036693573e-01</stageThreshold>
      <weakClassifiers>
        <_>
          <internalNodes>
            0 -1 1 -3.2017145305871964e-02</internalNodes>
          <leafValues>
            1. -9.5439738035202026e-01</leafValues></_>
        <_>
          <internalNodes>
            0 -1 8 6.4218910411000252e-03</internalNodes>
          <leafValues>
            -9.8055887222290039e-01 8.4318387508392334e-01</leafValues></_></weakClassifiers></_>
    <!-- stage 2 -->
    <_>
      <maxWeakCount>2</maxWeakCount>
      <stageThreshold>-7.6233737170696259e-02</stageThreshold>
      <weakClassifiers>
        <_>
          <internalNodes>
            0 -1 0 -3.6029189825057983e-02</internalNodes>
          <leafValues>
            9.2857140302658081e-01 -9.6699672937393188e-01</leafValues></_>
        <_>
          <internalNodes>
            0 -1 6 -1.4711538329720497e-02</internalNodes>
          <leafValues>
            8.9076298475265503e-01 -9.7322314977645874e-01</leafValues></_></weakClassifiers></_>
    <!-- stage 3 -->
    <_>
      <maxWeakCount>2</maxWeakCount>
      <stageThreshold>-3.0917972326278687e-01</stageThreshold>
      <weakClassifiers>
        <_>
          <internalNodes>
            0 -1 5 -6.3175156712532043e-02</internalNodes>
          <leafValues>
            9.2727273702621460e-01 -9.6052628755569458e-01</leafValues></_>
        <_>
          <internalNodes>
            0 -1 3 -1.6648271679878235e-01</internalNodes>
          <leafValues>
            6.5134656429290771e-01 -9.9292498826980591e-01</leafValues></_></weakClassifiers></_>
    <!-- stage 4 -->
    <_>
      <maxWeakCount>2</maxWeakCount>
      <stageThreshold>-1.1206392943859100e-01</stageThreshold>
      <weakClassifiers>
        <_>
          <internalNodes>
            0 -1 7 -1.8647627905011177e-02</internalNodes>
          <leafValues>
            1. -9.4805192947387695e-01</leafValues></_>
        <_>
          <internalNodes>
            0 -1 10 2.7053639292716980e-02</internalNodes>
          <leafValues>
            -9.9349629878997803e-01 8.3598804473876953e-01</leafValues></_></weakClassifiers></_>
    <!-- stage 5 -->
    <_>
      <maxWeakCount>1</maxWeakCount>
      <stageThreshold>9.6666663885116577e-01</stageThreshold>
      <weakClassifiers>
        <_>
          <internalNodes>
            0 -1 9 -2.2635322064161301e-02</internalNodes>
          <leafValues>
            9.6666663885116577e-01 -1.</leafValues></_></weakClassifiers></_></stages>
  <features>
    <_>
      <rects>
        <_>
          0 4 12 13 -1.</_>
        <_>
          6 4 6 13 2.</_></rects>
      <tilted>0</tilted></_>
    <_>
      <rects>
        <_>
          0 39 46 4 -1.</_>
        <_>
          0 41 46 2 2.</_></rects>
      <tilted>0</tilted></_>
    <_>
      <rects>
        <_>
          4 0 37 6 -1.</_>
        <_>
          4 3 37 3 2.</_></rects>
      <tilted>0</tilted></_>
    <_>
      <rects>
        <_>
          7 0 36 21 -1.</_>
        <_>
          7 7 36 7 3.</_></rects>
      <tilted>0</tilted></_>
    <_>
      <rects>
        <_>
          7 12 39 15 -1.</_>
        <_>
          7 17 39 5 3.</_></rects>
      <tilted>0</tilted></_>
    <_>
      <rects>
        <_>
          7 18 15 12 -1.</_>
        <_>
          7 22 15 4 3.</_></rects>
      <tilted>0</tilted></_>
    <_>
      <rects>
        <_>
          17 20 10 16 -1.</_>
        <_>
          17 20 5 8 2.</_>
        <_>
          22 28 5 8 2.</_></rects>
      <tilted>0</tilted></_>
    <_>
      <rects>
        <_>
          23 39 19 4 -1.</_>
        <_>
          23 41 19 2 2.</_></rects>
      <tilted>0</tilted></_>
    <_>
      <rects>
        <_>
          30 33 4 9 -1.</_>
        <_>
          30 36 4 3 3.</_></rects>
      <tilted>0</tilted></_>
    <_>
      <rects>
        <_>
          31 21 15 12 -1.</_>
        <_>
          31 27 15 6 2.</_></rects>
      <tilted>0</tilted></_>
    <_>
      <rects>
        <_>
          35 6 14 15 -1.</_>
        <_>
          42 6 7 15 2.</_></rects>
      <tilted>0</tilted></_></features></cascade>
</opencv_storage>
