<?xml version="1.0"?>
<opencv_storage>
<cascade>
  <stageType>BOOST</stageType>
  <featureType>HAAR</featureType>
  <height>30</height>
  <width>60</width>
  <stageParams>
    <boostType>GAB</boostType>
    <minHitRate>9.9500000476837158e-01</minHitRate>
    <maxFalseAlarm>5.0000000000000000e-01</maxFalseAlarm>
    <weightTrimRate>9.4999998807907104e-01</weightTrimRate>
    <maxDepth>1</maxDepth>
    <maxWeakCount>100</maxWeakCount></stageParams>
  <featureParams>
    <maxCatCount>0</maxCatCount>
    <featSize>1</featSize>
    <mode>BASIC</mode></featureParams>
  <stageNum>7</stageNum>
  <stages>
    <!-- stage 0 -->
    <_>
      <maxWeakCount>1</maxWeakCount>
      <stageThreshold>9.1489362716674805e-01</stageThreshold>
      <weakClassifiers>
        <_>
          <internalNodes>
            0 -1 9 -1.9637985527515411e-01</internalNodes>
          <leafValues>
            9.1489362716674805e-01 -1.</leafValues></_></weakClassifiers></_>
    <!-- stage 1 -->
    <_>
      <maxWeakCount>2</maxWeakCount>
      <stageThreshold>-1.7407770454883575e-01</stageThreshold>
      <weakClassifiers>
        <_>
          <internalNodes>
            0 -1 12 -2.2297415882349014e-02</internalNodes>
          <leafValues>
            7.9591834545135498e-01 -9.9324321746826172e-01</leafValues></_>
        <_>
          <internalNodes>
            0 -1 3 -2.3439072072505951e-02</internalNodes>
          <leafValues>
            8.3610713481903076e-01 -9.6999609470367432e-01</leafValues></_></weakClassifiers></_>
    <!-- stage 2 -->
    <_>
      <maxWeakCount>2</maxWeakCount>
      <stageThreshold>-2.4876405298709869e-01</stageThreshold>
      <weakClassifiers>
        <_>
          <internalNodes>
            0 -1 6 -3.1867447495460510e-01</internalNodes>
          <leafValues>
            8.4210526943206787e-01 -9.3485343456268311e-01</leafValues></_>
        <_>
          <internalNodes>
            0 -1 0 1.0644665919244289e-02</internalNodes>
          <leafValues>
            -9.5659273862838745e-01 6.8608939647674561e-01</leafValues></_></weakClassifiers></_>
    <!-- stage 3 -->
    <_>
      <maxWeakCount>3</maxWeakCount>
      <stageThreshold>-1.1430219411849976e+00</stageThreshold>
      <weakClassifiers>
        <_>
          <internalNodes>
            0 -1 13 6.1238687485456467e-03</internalNodes>
          <leafValues>
            -9.4648832082748413e-01 6.0869562625885010e-01</leafValues></_>
        <_>
          <internalNodes>
            0 -1 5 -3.6527031660079956e-01</internalNodes>
          <leafValues>
            8.4901672601699829e-01 -8.2456153631210327e-01</leafValues></_>
        <_>
          <internalNodes>
            0 -1 10 -3.3174406737089157e-02</internalNodes>
          <leafValues>
            6.2802791595458984e-01 -8.9407545328140259e-01</leafValues></_></weakClassifiers></_>
    <!-- stage 4 -->
    <_>
      <maxWeakCount>3</maxWeakCount>
      <stageThreshold>-1.1312307119369507e+00</stageThreshold>
      <weakClassifiers>
        <_>
          <internalNodes>
            0 -1 2 -2.6083716657012701e-03</internalNodes>
          <leafValues>
            6.6666668653488159e-01 -9.0291261672973633e-01</leafValues></_>
        <_>
          <internalNodes>
            0 -1 1 6.4657777547836304e-03</internalNodes>
          <leafValues>
            -8.7237310409545898e-01 5.3895384073257446e-01</leafValues></_>
        <_>
          <internalNodes>
            0 -1 8 -1.2887860066257417e-04</internalNodes>
          <leafValues>
            -7.6727193593978882e-01 7.4711573123931885e-01</leafValues></_></weakClassifiers></_>
    <!-- stage 5 -->
    <_>
      <maxWeakCount>2</maxWeakCount>
      <stageThreshold>-5.1833938807249069e-02</stageThreshold>
      <weakClassifiers>
        <_>
          <internalNodes>
            0 -1 4 -2.8880238533020020e-01</internalNodes>
          <leafValues>
            8.0000001192092896e-01 -8.8571429252624512e-01</leafValues></_>
        <_>
          <internalNodes>
            0 -1 7 -2.0314201712608337e-01</internalNodes>
          <leafValues>
            1. -8.5183393955230713e-01</leafValues></_></weakClassifiers></_>
    <!-- stage 6 -->
    <_>
      <maxWeakCount>1</maxWeakCount>
      <stageThreshold>1.</stageThreshold>
      <weakClassifiers>
        <_>
          <internalNodes>
            0 -1 11 -2.7600415050983429e-02</internalNodes>
          <leafValues>
            1. -1.</leafValues></_></weakClassifiers></_></stages>
  <features>
    <_>
      <rects>
        <_>
          0 5 15 8 -1.</_>
        <_>
          5 5 5 8 3.</_></rects>
      <tilted>0</tilted></_>
    <_>
      <rects>
        <_>
          3 0 2 30 -1.</_>
        <_>
          3 10 2 10 3.</_></rects>
      <tilted>0</tilted></_>
    <_>
      <rects>
        <_>
          10 3 4 6 -1.</_>
        <_>
          12 3 2 6 2.</_></rects>
      <tilted>0</tilted></_>
    <_>
      <rects>
        <_>
          11 13 18 10 -1.</_>
        <_>
          17 13 6 10 3.</_></rects>
      <tilted>0</tilted></_>
    <_>
      <rects>
        <_>
          14 1 42 16 -1.</_>
        <_>
          14 9 42 8 2.</_></rects>
      <tilted>0</tilted></_>
    <_>
      <rects>
        <_>
          17 0 25 24 -1.</_>
        <_>
          17 12 25 12 2.</_></rects>
      <tilted>0</tilted></_>
    <_>
      <rects>
        <_>
          18 0 24 22 -1.</_>
        <_>
          18 11 24 11 2.</_></rects>
      <tilted>0</tilted></_>
    <_>
      <rects>
        <_>
          19 1 13 26 -1.</_>
        <_>
          19 14 13 13 2.</_></rects>
      <tilted>0</tilted></_>
    <_>
      <rects>
        <_>
          20 14 17 4 -1.</_>
        <_>
          20 16 17 2 2.</_></rects>
      <tilted>0</tilted></_>
    <_>
      <rects>
        <_>
          23 0 17 24 -1.</_>
        <_>
          23 12 17 12 2.</_></rects>
      <tilted>0</tilted></_>
    <_>
      <rects>
        <_>
          26 10 30 5 -1.</_>
        <_>
          36 10 10 5 3.</_></rects>
      <tilted>0</tilted></_>
    <_>
      <rects>
        <_>
          31 10 21 13 -1.</_>
        <_>
          38 10 7 13 3.</_></rects>
      <tilted>0</tilted></_>
    <_>
      <rects>
        <_>
          33 6 21 9 -1.</_>
        <_>
          40 6 7 9 3.</_></rects>
      <tilted>0</tilted></_>
    <_>
      <rects>
        <_>
          43 12 4 16 -1.</_>
        <_>
          45 12 2 16 2.</_></rects>
      <tilted>0</tilted></_></features></cascade>
</opencv_storage>
