<?xml version="1.0"?>
<opencv_storage>
<cascade>
  <stageType>BOOST</stageType>
  <featureType>HAAR</featureType>
  <height>50</height>
  <width>50</width>
  <stageParams>
    <boostType>GAB</boostType>
    <minHitRate>9.9500000476837158e-01</minHitRate>
    <maxFalseAlarm>5.0000000000000000e-01</maxFalseAlarm>
    <weightTrimRate>9.4999998807907104e-01</weightTrimRate>
    <maxDepth>1</maxDepth>
    <maxWeakCount>100</maxWeakCount></stageParams>
  <featureParams>
    <maxCatCount>0</maxCatCount>
    <featSize>1</featSize>
    <mode>BASIC</mode></featureParams>
  <stageNum>8</stageNum>
  <stages>
    <!-- stage 0 -->
    <_>
      <maxWeakCount>1</maxWeakCount>
      <stageThreshold>1.</stageThreshold>
      <weakClassifiers>
        <_>
          <internalNodes>
            0 -1 1 -5.1082849502563477e-01</internalNodes>
          <leafValues>
            1. -1.</leafValues></_></weakClassifiers></_>
    <!-- stage 1 -->
    <_>
      <maxWeakCount>2</maxWeakCount>
      <stageThreshold>-6.2360249459743500e-02</stageThreshold>
      <weakClassifiers>
        <_>
          <internalNodes>
            0 -1 2 -6.6443905234336853e-02</internalNodes>
          <leafValues>
            1. -9.9335545301437378e-01</leafValues></_>
        <_>
          <internalNodes>
            0 -1 10 -1.3653673231601715e-01</internalNodes>
          <leafValues>
            9.3099522590637207e-01 -1.</leafValues></_></weakClassifiers></_>
    <!-- stage 2 -->
    <_>
      <maxWeakCount>2</maxWeakCount>
      <stageThreshold>-3.0846677720546722e-02</stageThreshold>
      <weakClassifiers>
        <_>
          <internalNodes>
            0 -1 8 -3.0174314975738525e-01</internalNodes>
          <leafValues>
            1. -9.7368419170379639e-01</leafValues></_>
        <_>
          <internalNodes>
            0 -1 16 4.7506494447588921e-03</internalNodes>
          <leafValues>
            -9.6784007549285889e-01 9.4283753633499146e-01</leafValues></_></weakClassifiers></_>
    <!-- stage 3 -->
    <_>
      <maxWeakCount>3</maxWeakCount>
      <stageThreshold>-1.2083911895751953e+00</stageThreshold>
      <weakClassifiers>
        <_>
          <internalNodes>
            0 -1 7 -3.9224809408187866e-01</internalNodes>
          <leafValues>
            8.6956518888473511e-01 -9.5394736528396606e-01</leafValues></_>
        <_>
          <internalNodes>
            0 -1 3 -2.2976484149694443e-02</internalNodes>
          <leafValues>
            8.2803678512573242e-01 -9.4366449117660522e-01</leafValues></_>
        <_>
          <internalNodes>
            0 -1 9 -1.1064192280173302e-02</internalNodes>
          <leafValues>
            6.8922066688537598e-01 -9.5486217737197876e-01</leafValues></_></weakClassifiers></_>
    <!-- stage 4 -->
    <_>
      <maxWeakCount>3</maxWeakCount>
      <stageThreshold>-1.2074974775314331e+00</stageThreshold>
      <weakClassifiers>
        <_>
          <internalNodes>
            0 -1 6 -4.4020992517471313e-01</internalNodes>
          <leafValues>
            9.0243899822235107e-01 -9.2880260944366455e-01</leafValues></_>
        <_>
          <internalNodes>
            0 -1 5 -1.2712974566966295e-03</internalNodes>
          <leafValues>
            6.6020369529724121e-01 -8.8549119234085083e-01</leafValues></_>
        <_>
          <internalNodes>
            0 -1 0 -3.7278685718774796e-02</internalNodes>
          <leafValues>
            6.0679632425308228e-01 -9.2321574687957764e-01</leafValues></_></weakClassifiers></_>
    <!-- stage 5 -->
    <_>
      <maxWeakCount>3</maxWeakCount>
      <stageThreshold>-1.2447195053100586e+00</stageThreshold>
      <weakClassifiers>
        <_>
          <internalNodes>
            0 -1 11 -2.8997319936752319e-01</internalNodes>
          <leafValues>
            1. -9.6721309423446655e-01</leafValues></_>
        <_>
          <internalNodes>
            0 -1 12 6.4633712172508240e-03</internalNodes>
          <leafValues>
            -9.4113081693649292e-01 7.9299634695053101e-01</leafValues></_>
        <_>
          <internalNodes>
            0 -1 14 -2.0456407219171524e-02</internalNodes>
          <leafValues>
            6.6362446546554565e-01 -9.7851103544235229e-01</leafValues></_></weakClassifiers></_>
    <!-- stage 6 -->
    <_>
      <maxWeakCount>2</maxWeakCount>
      <stageThreshold>-2.8610521554946899e-01</stageThreshold>
      <weakClassifiers>
        <_>
          <internalNodes>
            0 -1 15 -4.8625353723764420e-02</internalNodes>
          <leafValues>
            1. -9.2926043272018433e-01</leafValues></_>
        <_>
          <internalNodes>
            0 -1 13 4.1841086931526661e-04</internalNodes>
          <leafValues>
            -9.6057534217834473e-01 6.4315521717071533e-01</leafValues></_></weakClassifiers></_>
    <!-- stage 7 -->
    <_>
      <maxWeakCount>1</maxWeakCount>
      <stageThreshold>1.</stageThreshold>
      <weakClassifiers>
        <_>
          <internalNodes>
            0 -1 4 -2.3547708988189697e-02</internalNodes>
          <leafValues>
            1. -1.</leafValues></_></weakClassifiers></_></stages>
  <features>
    <_>
      <rects>
        <_>
          1 11 20 22 -1.</_>
        <_>
          1 11 10 11 2.</_>
        <_>
          11 22 10 11 2.</_></rects>
      <tilted>0</tilted></_>
    <_>
      <rects>
        <_>
          3 2 34 46 -1.</_>
        <_>
          3 25 34 23 2.</_></rects>
      <tilted>0</tilted></_>
    <_>
      <rects>
        <_>
          4 0 22 50 -1.</_>
        <_>
          4 0 11 25 2.</_>
        <_>
          15 25 11 25 2.</_></rects>
      <tilted>0</tilted></_>
    <_>
      <rects>
        <_>
          4 12 16 20 -1.</_>
        <_>
          4 12 8 10 2.</_>
        <_>
          12 22 8 10 2.</_></rects>
      <tilted>0</tilted></_>
    <_>
      <rects>
        <_>
          7 6 14 34 -1.</_>
        <_>
          7 6 7 17 2.</_>
        <_>
          14 23 7 17 2.</_></rects>
      <tilted>0</tilted></_>
    <_>
      <rects>
        <_>
          7 10 6 15 -1.</_>
        <_>
          10 10 3 15 2.</_></rects>
      <tilted>0</tilted></_>
    <_>
      <rects>
        <_>
          14 4 21 46 -1.</_>
        <_>
          14 27 21 23 2.</_></rects>
      <tilted>0</tilted></_>
    <_>
      <rects>
        <_>
          15 5 20 44 -1.</_>
        <_>
          15 27 20 22 2.</_></rects>
      <tilted>0</tilted></_>
    <_>
      <rects>
        <_>
          17 3 16 44 -1.</_>
        <_>
          17 25 16 22 2.</_></rects>
      <tilted>0</tilted></_>
    <_>
      <rects>
        <_>
          20 0 30 18 -1.</_>
        <_>
          20 0 15 9 2.</_>
        <_>
          35 9 15 9 2.</_></rects>
      <tilted>0</tilted></_>
    <_>
      <rects>
        <_>
          20 3 7 46 -1.</_>
        <_>
          20 26 7 23 2.</_></rects>
      <tilted>0</tilted></_>
    <_>
      <rects>
        <_>
          20 4 14 46 -1.</_>
        <_>
          20 27 14 23 2.</_></rects>
      <tilted>0</tilted></_>
    <_>
      <rects>
        <_>
          20 13 18 14 -1.</_>
        <_>
          26 13 6 14 3.</_></rects>
      <tilted>0</tilted></_>
    <_>
      <rects>
        <_>
          22 2 2 12 -1.</_>
        <_>
          22 8 2 6 2.</_></rects>
      <tilted>0</tilted></_>
    <_>
      <rects>
        <_>
          28 6 18 25 -1.</_>
        <_>
          34 6 6 25 3.</_></rects>
      <tilted>0</tilted></_>
    <_>
      <rects>
        <_>
          31 7 3 38 -1.</_>
        <_>
          31 26 3 19 2.</_></rects>
      <tilted>0</tilted></_>
    <_>
      <rects>
        <_>
          36 13 12 15 -1.</_>
        <_>
          40 13 4 15 3.</_></rects>
      <tilted>0</tilted></_></features></cascade>
</opencv_storage>
