<?xml version="1.0"?>
<opencv_storage>
<cascade>
  <stageType>BOOST</stageType>
  <featureType>HAAR</featureType>
  <height>40</height>
  <width>40</width>
  <stageParams>
    <boostType>GAB</boostType>
    <minHitRate>9.9500000476837158e-01</minHitRate>
    <maxFalseAlarm>5.0000000000000000e-01</maxFalseAlarm>
    <weightTrimRate>9.4999998807907104e-01</weightTrimRate>
    <maxDepth>1</maxDepth>
    <maxWeakCount>100</maxWeakCount></stageParams>
  <featureParams>
    <maxCatCount>0</maxCatCount>
    <featSize>1</featSize>
    <mode>BASIC</mode></featureParams>
  <stageNum>5</stageNum>
  <stages>
    <!-- stage 0 -->
    <_>
      <maxWeakCount>2</maxWeakCount>
      <stageThreshold>-2.1547621488571167e-01</stageThreshold>
      <weakClassifiers>
        <_>
          <internalNodes>
            0 -1 2 -5.1009938120841980e-02</internalNodes>
          <leafValues>
            8.9743590354919434e-01 -9.9331104755401611e-01</leafValues></_>
        <_>
          <internalNodes>
            0 -1 0 -2.1107091009616852e-01</internalNodes>
          <leafValues>
            7.7783483266830444e-01 -1.</leafValues></_></weakClassifiers></_>
    <!-- stage 1 -->
    <_>
      <maxWeakCount>2</maxWeakCount>
      <stageThreshold>-7.8467711806297302e-02</stageThreshold>
      <weakClassifiers>
        <_>
          <internalNodes>
            0 -1 4 -1.7140526324510574e-02</internalNodes>
          <leafValues>
            9.4736844301223755e-01 -9.9333333969116211e-01</leafValues></_>
        <_>
          <internalNodes>
            0 -1 5 1.0817883536219597e-02</internalNodes>
          <leafValues>
            -9.9313443899154663e-01 9.1486561298370361e-01</leafValues></_></weakClassifiers></_>
    <!-- stage 2 -->
    <_>
      <maxWeakCount>1</maxWeakCount>
      <stageThreshold>8.9999997615814209e-01</stageThreshold>
      <weakClassifiers>
        <_>
          <internalNodes>
            0 -1 6 2.5409901514649391e-02</internalNodes>
          <leafValues>
            -1. 8.9999997615814209e-01</leafValues></_></weakClassifiers></_>
    <!-- stage 3 -->
    <_>
      <maxWeakCount>2</maxWeakCount>
      <stageThreshold>-1.8133990466594696e-01</stageThreshold>
      <weakClassifiers>
        <_>
          <internalNodes>
            0 -1 7 4.7157987952232361e-02</internalNodes>
          <leafValues>
            -9.8019802570343018e-01 1.</leafValues></_>
        <_>
          <internalNodes>
            0 -1 1 -3.9241660386323929e-02</internalNodes>
          <leafValues>
            7.9885810613632202e-01 -9.8674970865249634e-01</leafValues></_></weakClassifiers></_>
    <!-- stage 4 -->
    <_>
      <maxWeakCount>1</maxWeakCount>
      <stageThreshold>9.4871795177459717e-01</stageThreshold>
      <weakClassifiers>
        <_>
          <internalNodes>
            0 -1 3 -5.3113820031285286e-03</internalNodes>
          <leafValues>
            9.4871795177459717e-01 -1.</leafValues></_></weakClassifiers></_></stages>
  <features>
    <_>
      <rects>
        <_>
          0 0 35 21 -1.</_>
        <_>
          0 7 35 7 3.</_></rects>
      <tilted>0</tilted></_>
    <_>
      <rects>
        <_>
          0 6 8 20 -1.</_>
        <_>
          4 6 4 20 2.</_></rects>
      <tilted>0</tilted></_>
    <_>
      <rects>
        <_>
          1 18 18 9 -1.</_>
        <_>
          1 21 18 3 3.</_></rects>
      <tilted>0</tilted></_>
    <_>
      <rects>
        <_>
          12 25 2 12 -1.</_>
        <_>
          12 29 2 4 3.</_></rects>
      <tilted>0</tilted></_>
    <_>
      <rects>
        <_>
          19 36 19 4 -1.</_>
        <_>
          19 38 19 2 2.</_></rects>
      <tilted>0</tilted></_>
    <_>
      <rects>
        <_>
          25 31 4 9 -1.</_>
        <_>
          25 34 4 3 3.</_></rects>
      <tilted>0</tilted></_>
    <_>
      <rects>
        <_>
          29 8 10 13 -1.</_>
        <_>
          34 8 5 13 2.</_></rects>
      <tilted>0</tilted></_>
    <_>
      <rects>
        <_>
          30 6 4 27 -1.</_>
        <_>
          30 15 4 9 3.</_></rects>
      <tilted>0</tilted></_></features></cascade>
</opencv_storage>
