<?xml version="1.0"?>
<opencv_storage>
<cascade>
  <stageType>BOOST</stageType>
  <featureType>HAAR</featureType>
  <height>32</height>
  <width>32</width>
  <stageParams>
    <boostType>GAB</boostType>
    <minHitRate>9.9500000476837158e-01</minHitRate>
    <maxFalseAlarm>5.0000000000000000e-01</maxFalseAlarm>
    <weightTrimRate>9.4999998807907104e-01</weightTrimRate>
    <maxDepth>1</maxDepth>
    <maxWeakCount>100</maxWeakCount></stageParams>
  <featureParams>
    <maxCatCount>0</maxCatCount>
    <featSize>1</featSize>
    <mode>BASIC</mode></featureParams>
  <stageNum>5</stageNum>
  <stages>
    <!-- stage 0 -->
    <_>
      <maxWeakCount>1</maxWeakCount>
      <stageThreshold>9.2307692766189575e-01</stageThreshold>
      <weakClassifiers>
        <_>
          <internalNodes>
            0 -1 5 1.1951815336942673e-02</internalNodes>
          <leafValues>
            -1. 9.2307692766189575e-01</leafValues></_></weakClassifiers></_>
    <!-- stage 1 -->
    <_>
      <maxWeakCount>2</maxWeakCount>
      <stageThreshold>-1.5483684837818146e-01</stageThreshold>
      <weakClassifiers>
        <_>
          <internalNodes>
            0 -1 7 -1.1959877610206604e-01</internalNodes>
          <leafValues>
            9.5999997854232788e-01 -9.9333333969116211e-01</leafValues></_>
        <_>
          <internalNodes>
            0 -1 9 6.3781991600990295e-02</internalNodes>
          <leafValues>
            -9.9315494298934937e-01 8.3849650621414185e-01</leafValues></_></weakClassifiers></_>
    <!-- stage 2 -->
    <_>
      <maxWeakCount>2</maxWeakCount>
      <stageThreshold>-1.6387860476970673e-01</stageThreshold>
      <weakClassifiers>
        <_>
          <internalNodes>
            0 -1 6 9.7374379634857178e-02</internalNodes>
          <leafValues>
            -9.8006641864776611e-01 9.1836732625961304e-01</leafValues></_>
        <_>
          <internalNodes>
            0 -1 8 -4.3635919690132141e-02</internalNodes>
          <leafValues>
            8.1618785858154297e-01 -9.8611789941787720e-01</leafValues></_></weakClassifiers></_>
    <!-- stage 3 -->
    <_>
      <maxWeakCount>3</maxWeakCount>
      <stageThreshold>-1.1779534816741943e+00</stageThreshold>
      <weakClassifiers>
        <_>
          <internalNodes>
            0 -1 3 -1.3836830854415894e-01</internalNodes>
          <leafValues>
            8.3999997377395630e-01 -9.7333335876464844e-01</leafValues></_>
        <_>
          <internalNodes>
            0 -1 1 -1.1832238733768463e-01</internalNodes>
          <leafValues>
            6.3572907447814941e-01 -9.4786000251770020e-01</leafValues></_>
        <_>
          <internalNodes>
            0 -1 4 -2.4689320474863052e-02</internalNodes>
          <leafValues>
            9.2026937007904053e-01 -8.4034931659698486e-01</leafValues></_></weakClassifiers></_>
    <!-- stage 4 -->
    <_>
      <maxWeakCount>2</maxWeakCount>
      <stageThreshold>-2.9013505578041077e-01</stageThreshold>
      <weakClassifiers>
        <_>
          <internalNodes>
            0 -1 0 -2.5013414025306702e-01</internalNodes>
          <leafValues>
            9.4117647409439087e-01 -8.9240509271621704e-01</leafValues></_>
        <_>
          <internalNodes>
            0 -1 2 -1.1617764830589294e-01</internalNodes>
          <leafValues>
            6.0227000713348389e-01 -9.7250044345855713e-01</leafValues></_></weakClassifiers></_></stages>
  <features>
    <_>
      <rects>
        <_>
          0 8 18 15 -1.</_>
        <_>
          6 8 6 15 3.</_></rects>
      <tilted>0</tilted></_>
    <_>
      <rects>
        <_>
          1 6 10 26 -1.</_>
        <_>
          6 6 5 26 2.</_></rects>
      <tilted>0</tilted></_>
    <_>
      <rects>
        <_>
          3 0 28 12 -1.</_>
        <_>
          3 6 28 6 2.</_></rects>
      <tilted>0</tilted></_>
    <_>
      <rects>
        <_>
          3 6 15 18 -1.</_>
        <_>
          8 6 5 18 3.</_></rects>
      <tilted>0</tilted></_>
    <_>
      <rects>
        <_>
          3 31 24 1 -1.</_>
        <_>
          11 31 8 1 3.</_></rects>
      <tilted>0</tilted></_>
    <_>
      <rects>
        <_>
          5 23 10 6 -1.</_>
        <_>
          5 26 10 3 2.</_></rects>
      <tilted>0</tilted></_>
    <_>
      <rects>
        <_>
          13 12 18 20 -1.</_>
        <_>
          13 12 9 10 2.</_>
        <_>
          22 22 9 10 2.</_></rects>
      <tilted>0</tilted></_>
    <_>
      <rects>
        <_>
          15 5 15 22 -1.</_>
        <_>
          20 5 5 22 3.</_></rects>
      <tilted>0</tilted></_>
    <_>
      <rects>
        <_>
          18 0 4 18 -1.</_>
        <_>
          18 6 4 6 3.</_></rects>
      <tilted>0</tilted></_>
    <_>
      <rects>
        <_>
          24 6 8 17 -1.</_>
        <_>
          28 6 4 17 2.</_></rects>
      <tilted>0</tilted></_></features></cascade>
</opencv_storage>
