<?xml version="1.0"?>
<opencv_storage>
<cascade>
  <stageType>BOOST</stageType>
  <featureType>HAAR</featureType>
  <height>32</height>
  <width>32</width>
  <stageParams>
    <boostType>GAB</boostType>
    <minHitRate>9.9500000476837158e-01</minHitRate>
    <maxFalseAlarm>5.0000000000000000e-01</maxFalseAlarm>
    <weightTrimRate>9.4999998807907104e-01</weightTrimRate>
    <maxDepth>1</maxDepth>
    <maxWeakCount>100</maxWeakCount></stageParams>
  <featureParams>
    <maxCatCount>0</maxCatCount>
    <featSize>1</featSize>
    <mode>BASIC</mode></featureParams>
  <stageNum>8</stageNum>
  <stages>
    <!-- stage 0 -->
    <_>
      <maxWeakCount>2</maxWeakCount>
      <stageThreshold>-1.7150491476058960e-01</stageThreshold>
      <weakClassifiers>
        <_>
          <internalNodes>
            0 -1 5 -7.1220405399799347e-02</internalNodes>
          <leafValues>
            9.4520545005798340e-01 -9.9331104755401611e-01</leafValues></_>
        <_>
          <internalNodes>
            0 -1 7 -3.3384449779987335e-02</internalNodes>
          <leafValues>
            8.2180613279342651e-01 -1.</leafValues></_></weakClassifiers></_>
    <!-- stage 1 -->
    <_>
      <maxWeakCount>2</maxWeakCount>
      <stageThreshold>-2.1022555232048035e-01</stageThreshold>
      <weakClassifiers>
        <_>
          <internalNodes>
            0 -1 17 6.1438098549842834e-02</internalNodes>
          <leafValues>
            -9.8666667938232422e-01 9.4444441795349121e-01</leafValues></_>
        <_>
          <internalNodes>
            0 -1 19 1.4460381120443344e-02</internalNodes>
          <leafValues>
            -1. 7.7644109725952148e-01</leafValues></_></weakClassifiers></_>
    <!-- stage 2 -->
    <_>
      <maxWeakCount>3</maxWeakCount>
      <stageThreshold>-9.3702179193496704e-01</stageThreshold>
      <weakClassifiers>
        <_>
          <internalNodes>
            0 -1 3 -5.8348134160041809e-02</internalNodes>
          <leafValues>
            1. -9.8675495386123657e-01</leafValues></_>
        <_>
          <internalNodes>
            0 -1 0 -1.7826113104820251e-01</internalNodes>
          <leafValues>
            1. -9.3450778722763062e-01</leafValues></_>
        <_>
          <internalNodes>
            0 -1 2 -1.0835862159729004e-01</internalNodes>
          <leafValues>
            9.8424094915390015e-01 -9.4415730237960815e-01</leafValues></_></weakClassifiers></_>
    <!-- stage 3 -->
    <_>
      <maxWeakCount>3</maxWeakCount>
      <stageThreshold>-1.2219870090484619e+00</stageThreshold>
      <weakClassifiers>
        <_>
          <internalNodes>
            0 -1 16 3.8130015134811401e-02</internalNodes>
          <leafValues>
            -9.8615914583206177e-01 6.8674701452255249e-01</leafValues></_>
        <_>
          <internalNodes>
            0 -1 11 1.0951167345046997e-01</internalNodes>
          <leafValues>
            -9.0706205368041992e-01 7.2009301185607910e-01</leafValues></_>
        <_>
          <internalNodes>
            0 -1 9 -5.4542906582355499e-02</internalNodes>
          <leafValues>
            6.7123419046401978e-01 -9.6606767177581787e-01</leafValues></_></weakClassifiers></_>
    <!-- stage 4 -->
    <_>
      <maxWeakCount>2</maxWeakCount>
      <stageThreshold>-8.2932174205780029e-02</stageThreshold>
      <weakClassifiers>
        <_>
          <internalNodes>
            0 -1 11 1.1157512664794922e-01</internalNodes>
          <leafValues>
            -9.4117647409439087e-01 9.0909093618392944e-01</leafValues></_>
        <_>
          <internalNodes>
            0 -1 4 -1.5437147021293640e-01</internalNodes>
          <leafValues>
            8.5824429988861084e-01 -9.6044665575027466e-01</leafValues></_></weakClassifiers></_>
    <!-- stage 5 -->
    <_>
      <maxWeakCount>3</maxWeakCount>
      <stageThreshold>-1.1757946014404297e+00</stageThreshold>
      <weakClassifiers>
        <_>
          <internalNodes>
            0 -1 14 -6.5085388720035553e-02</internalNodes>
          <leafValues>
            6.6233766078948975e-01 -9.4576269388198853e-01</leafValues></_>
        <_>
          <internalNodes>
            0 -1 10 2.0028255879878998e-02</internalNodes>
          <leafValues>
            -8.5312515497207642e-01 7.3533052206039429e-01</leafValues></_>
        <_>
          <internalNodes>
            0 -1 15 4.1310027241706848e-02</internalNodes>
          <leafValues>
            -9.5109683275222778e-01 6.2309330701828003e-01</leafValues></_></weakClassifiers></_>
    <!-- stage 6 -->
    <_>
      <maxWeakCount>3</maxWeakCount>
      <stageThreshold>-1.1953066587448120e+00</stageThreshold>
      <weakClassifiers>
        <_>
          <internalNodes>
            0 -1 12 -1.0900147259235382e-01</internalNodes>
          <leafValues>
            8.6440676450729370e-01 -8.9137381315231323e-01</leafValues></_>
        <_>
          <internalNodes>
            0 -1 6 -1.8267830833792686e-02</internalNodes>
          <leafValues>
            8.0731284618377686e-01 -8.4144306182861328e-01</leafValues></_>
        <_>
          <internalNodes>
            0 -1 8 -1.5974389389157295e-02</internalNodes>
          <leafValues>
            5.3751015663146973e-01 -1.</leafValues></_></weakClassifiers></_>
    <!-- stage 7 -->
    <_>
      <maxWeakCount>3</maxWeakCount>
      <stageThreshold>-7.8509920835494995e-01</stageThreshold>
      <weakClassifiers>
        <_>
          <internalNodes>
            0 -1 1 -2.1771985292434692e-01</internalNodes>
          <leafValues>
            1. -9.4805192947387695e-01</leafValues></_>
        <_>
          <internalNodes>
            0 -1 13 1.2063140049576759e-02</internalNodes>
          <leafValues>
            -8.3704727888107300e-01 1.</leafValues></_>
        <_>
          <internalNodes>
            0 -1 18 5.9828810393810272e-02</internalNodes>
          <leafValues>
            -8.0760520696640015e-01 1.</leafValues></_></weakClassifiers></_></stages>
  <features>
    <_>
      <rects>
        <_>
          0 9 21 20 -1.</_>
        <_>
          7 9 7 20 3.</_></rects>
      <tilted>0</tilted></_>
    <_>
      <rects>
        <_>
          1 0 18 23 -1.</_>
        <_>
          7 0 6 23 3.</_></rects>
      <tilted>0</tilted></_>
    <_>
      <rects>
        <_>
          2 5 15 17 -1.</_>
        <_>
          7 5 5 17 3.</_></rects>
      <tilted>0</tilted></_>
    <_>
      <rects>
        <_>
          2 9 15 7 -1.</_>
        <_>
          7 9 5 7 3.</_></rects>
      <tilted>0</tilted></_>
    <_>
      <rects>
        <_>
          2 23 30 9 -1.</_>
        <_>
          12 23 10 9 3.</_></rects>
      <tilted>0</tilted></_>
    <_>
      <rects>
        <_>
          3 1 22 15 -1.</_>
        <_>
          3 6 22 5 3.</_></rects>
      <tilted>0</tilted></_>
    <_>
      <rects>
        <_>
          5 4 10 4 -1.</_>
        <_>
          10 4 5 4 2.</_></rects>
      <tilted>0</tilted></_>
    <_>
      <rects>
        <_>
          6 17 14 10 -1.</_>
        <_>
          6 17 7 5 2.</_>
        <_>
          13 22 7 5 2.</_></rects>
      <tilted>0</tilted></_>
    <_>
      <rects>
        <_>
          7 6 4 21 -1.</_>
        <_>
          7 13 4 7 3.</_></rects>
      <tilted>0</tilted></_>
    <_>
      <rects>
        <_>
          9 1 20 8 -1.</_>
        <_>
          9 5 20 4 2.</_></rects>
      <tilted>0</tilted></_>
    <_>
      <rects>
        <_>
          9 25 12 6 -1.</_>
        <_>
          9 27 12 2 3.</_></rects>
      <tilted>0</tilted></_>
    <_>
      <rects>
        <_>
          10 10 12 13 -1.</_>
        <_>
          14 10 4 13 3.</_></rects>
      <tilted>0</tilted></_>
    <_>
      <rects>
        <_>
          12 1 16 20 -1.</_>
        <_>
          12 1 8 10 2.</_>
        <_>
          20 11 8 10 2.</_></rects>
      <tilted>0</tilted></_>
    <_>
      <rects>
        <_>
          12 17 6 7 -1.</_>
        <_>
          14 17 2 7 3.</_></rects>
      <tilted>0</tilted></_>
    <_>
      <rects>
        <_>
          13 3 14 14 -1.</_>
        <_>
          13 3 7 7 2.</_>
        <_>
          20 10 7 7 2.</_></rects>
      <tilted>0</tilted></_>
    <_>
      <rects>
        <_>
          20 7 12 8 -1.</_>
        <_>
          26 7 6 8 2.</_></rects>
      <tilted>0</tilted></_>
    <_>
      <rects>
        <_>
          20 20 7 12 -1.</_>
        <_>
          20 26 7 6 2.</_></rects>
      <tilted>0</tilted></_>
    <_>
      <rects>
        <_>
          22 3 8 22 -1.</_>
        <_>
          26 3 4 22 2.</_></rects>
      <tilted>0</tilted></_>
    <_>
      <rects>
        <_>
          23 11 8 12 -1.</_>
        <_>
          27 11 4 12 2.</_></rects>
      <tilted>0</tilted></_>
    <_>
      <rects>
        <_>
          23 17 8 5 -1.</_>
        <_>
          27 17 4 5 2.</_></rects>
      <tilted>0</tilted></_></features></cascade>
</opencv_storage>
