<?xml version="1.0"?>
<opencv_storage>
<cascade>
  <stageType>BOOST</stageType>
  <featureType>HAAR</featureType>
  <height>40</height>
  <width>20</width>
  <stageParams>
    <boostType>GAB</boostType>
    <minHitRate>9.9500000476837158e-01</minHitRate>
    <maxFalseAlarm>5.0000000000000000e-01</maxFalseAlarm>
    <weightTrimRate>9.4999998807907104e-01</weightTrimRate>
    <maxDepth>1</maxDepth>
    <maxWeakCount>100</maxWeakCount></stageParams>
  <featureParams>
    <maxCatCount>0</maxCatCount>
    <featSize>1</featSize>
    <mode>BASIC</mode></featureParams>
  <stageNum>10</stageNum>
  <stages>
    <!-- stage 0 -->
    <_>
      <maxWeakCount>3</maxWeakCount>
      <stageThreshold>-1.0985265970230103e+00</stageThreshold>
      <weakClassifiers>
        <_>
          <internalNodes>
            0 -1 17 8.4127411246299744e-02</internalNodes>
          <leafValues>
            -9.8888885974884033e-01 9.3333333730697632e-01</leafValues></_>
        <_>
          <internalNodes>
            0 -1 21 2.8032612055540085e-02</internalNodes>
          <leafValues>
            -9.4499409198760986e-01 8.8467419147491455e-01</leafValues></_>
        <_>
          <internalNodes>
            0 -1 20 1.0578761994838715e-01</internalNodes>
          <leafValues>
            -9.7667342424392700e-01 8.3535635471343994e-01</leafValues></_></weakClassifiers></_>
    <!-- stage 1 -->
    <_>
      <maxWeakCount>2</maxWeakCount>
      <stageThreshold>-4.1512888669967651e-01</stageThreshold>
      <weakClassifiers>
        <_>
          <internalNodes>
            0 -1 15 3.7998883053660393e-03</internalNodes>
          <leafValues>
            -9.7183096408843994e-01 6.9230771064758301e-01</leafValues></_>
        <_>
          <internalNodes>
            0 -1 1 -7.6528126373887062e-03</internalNodes>
          <leafValues>
            5.5670207738876343e-01 -9.9292504787445068e-01</leafValues></_></weakClassifiers></_>
    <!-- stage 2 -->
    <_>
      <maxWeakCount>2</maxWeakCount>
      <stageThreshold>-4.0861973166465759e-01</stageThreshold>
      <weakClassifiers>
        <_>
          <internalNodes>
            0 -1 17 1.1637325584888458e-01</internalNodes>
          <leafValues>
            -9.6111112833023071e-01 7.6666665077209473e-01</leafValues></_>
        <_>
          <internalNodes>
            0 -1 9 -1.6039413213729858e-01</internalNodes>
          <leafValues>
            5.5249136686325073e-01 -9.9328207969665527e-01</leafValues></_></weakClassifiers></_>
    <!-- stage 3 -->
    <_>
      <maxWeakCount>2</maxWeakCount>
      <stageThreshold>-1.9748237729072571e-01</stageThreshold>
      <weakClassifiers>
        <_>
          <internalNodes>
            0 -1 5 1.3171789050102234e-01</internalNodes>
          <leafValues>
            -9.6638655662536621e-01 7.1428573131561279e-01</leafValues></_>
        <_>
          <internalNodes>
            0 -1 7 7.0974640548229218e-02</internalNodes>
          <leafValues>
            -9.1176807880401611e-01 8.2339245080947876e-01</leafValues></_></weakClassifiers></_>
    <!-- stage 4 -->
    <_>
      <maxWeakCount>3</maxWeakCount>
      <stageThreshold>-1.2843159437179565e+00</stageThreshold>
      <weakClassifiers>
        <_>
          <internalNodes>
            0 -1 11 4.1038421913981438e-03</internalNodes>
          <leafValues>
            -9.3201130628585815e-01 4.3283581733703613e-01</leafValues></_>
        <_>
          <internalNodes>
            0 -1 16 -6.2899917364120483e-02</internalNodes>
          <leafValues>
            7.3388075828552246e-01 -7.9415762424468994e-01</leafValues></_>
        <_>
          <internalNodes>
            0 -1 19 4.3658507056534290e-03</internalNodes>
          <leafValues>
            -9.2299407720565796e-01 5.1582276821136475e-01</leafValues></_></weakClassifiers></_>
    <!-- stage 5 -->
    <_>
      <maxWeakCount>3</maxWeakCount>
      <stageThreshold>-1.3469613790512085e+00</stageThreshold>
      <weakClassifiers>
        <_>
          <internalNodes>
            0 -1 22 1.4050927758216858e-01</internalNodes>
          <leafValues>
            -9.3181818723678589e-01 4.1176471114158630e-01</leafValues></_>
        <_>
          <internalNodes>
            0 -1 12 -2.0745927467942238e-03</internalNodes>
          <leafValues>
            4.8243686556816101e-01 -8.6725038290023804e-01</leafValues></_>
        <_>
          <internalNodes>
            0 -1 0 -3.8362257182598114e-03</internalNodes>
          <leafValues>
            4.5210716128349304e-01 -9.7676348686218262e-01</leafValues></_></weakClassifiers></_>
    <!-- stage 6 -->
    <_>
      <maxWeakCount>3</maxWeakCount>
      <stageThreshold>-1.2015560865402222e+00</stageThreshold>
      <weakClassifiers>
        <_>
          <internalNodes>
            0 -1 10 -3.3626537770032883e-02</internalNodes>
          <leafValues>
            9.4736844301223755e-01 -8.7958115339279175e-01</leafValues></_>
        <_>
          <internalNodes>
            0 -1 18 1.6715124249458313e-01</internalNodes>
          <leafValues>
            -8.7735551595687866e-01 6.8795883655548096e-01</leafValues></_>
        <_>
          <internalNodes>
            0 -1 4 -9.7504213452339172e-02</internalNodes>
          <leafValues>
            5.5538058280944824e-01 -9.4714748859405518e-01</leafValues></_></weakClassifiers></_>
    <!-- stage 7 -->
    <_>
      <maxWeakCount>3</maxWeakCount>
      <stageThreshold>-1.0548468828201294e+00</stageThreshold>
      <weakClassifiers>
        <_>
          <internalNodes>
            0 -1 3 1.7620113492012024e-01</internalNodes>
          <leafValues>
            -8.6243385076522827e-01 6.1904764175415039e-01</leafValues></_>
        <_>
          <internalNodes>
            0 -1 14 -7.2166202589869499e-03</internalNodes>
          <leafValues>
            7.7681845426559448e-01 -8.1285190582275391e-01</leafValues></_>
        <_>
          <internalNodes>
            0 -1 23 -1.2405641376972198e-02</internalNodes>
          <leafValues>
            6.2043881416320801e-01 -8.6809021234512329e-01</leafValues></_></weakClassifiers></_>
    <!-- stage 8 -->
    <_>
      <maxWeakCount>3</maxWeakCount>
      <stageThreshold>-9.9169659614562988e-01</stageThreshold>
      <weakClassifiers>
        <_>
          <internalNodes>
            0 -1 6 8.6662307381629944e-02</internalNodes>
          <leafValues>
            -8.7500000000000000e-01 1.</leafValues></_>
        <_>
          <internalNodes>
            0 -1 8 1.9333839416503906e-01</internalNodes>
          <leafValues>
            -7.7461230754852295e-01 8.2568532228469849e-01</leafValues></_>
        <_>
          <internalNodes>
            0 -1 13 9.2242844402790070e-03</internalNodes>
          <leafValues>
            -8.3421450853347778e-01 6.5791577100753784e-01</leafValues></_></weakClassifiers></_>
    <!-- stage 9 -->
    <_>
      <maxWeakCount>2</maxWeakCount>
      <stageThreshold>3.1746122986078262e-02</stageThreshold>
      <weakClassifiers>
        <_>
          <internalNodes>
            0 -1 2 2.3075634089764208e-05</internalNodes>
          <leafValues>
            -9.6721309423446655e-01 1.</leafValues></_>
        <_>
          <internalNodes>
            0 -1 24 -5.5492529645562172e-03</internalNodes>
          <leafValues>
            -9.6825385093688965e-01 1.</leafValues></_></weakClassifiers></_></stages>
  <features>
    <_>
      <rects>
        <_>
          0 15 9 4 -1.</_>
        <_>
          3 15 3 4 3.</_></rects>
      <tilted>0</tilted></_>
    <_>
      <rects>
        <_>
          0 23 12 7 -1.</_>
        <_>
          4 23 4 7 3.</_></rects>
      <tilted>0</tilted></_>
    <_>
      <rects>
        <_>
          3 31 3 4 -1.</_>
        <_>
          3 33 3 2 2.</_></rects>
      <tilted>0</tilted></_>
    <_>
      <rects>
        <_>
          4 4 12 21 -1.</_>
        <_>
          8 4 4 21 3.</_></rects>
      <tilted>0</tilted></_>
    <_>
      <rects>
        <_>
          4 7 14 21 -1.</_>
        <_>
          4 14 14 7 3.</_></rects>
      <tilted>0</tilted></_>
    <_>
      <rects>
        <_>
          4 27 16 12 -1.</_>
        <_>
          12 27 8 12 2.</_></rects>
      <tilted>0</tilted></_>
    <_>
      <rects>
        <_>
          5 4 6 34 -1.</_>
        <_>
          8 4 3 34 2.</_></rects>
      <tilted>0</tilted></_>
    <_>
      <rects>
        <_>
          5 5 8 9 -1.</_>
        <_>
          9 5 4 9 2.</_></rects>
      <tilted>0</tilted></_>
    <_>
      <rects>
        <_>
          5 7 10 33 -1.</_>
        <_>
          10 7 5 33 2.</_></rects>
      <tilted>0</tilted></_>
    <_>
      <rects>
        <_>
          7 4 9 36 -1.</_>
        <_>
          7 16 9 12 3.</_></rects>
      <tilted>0</tilted></_>
    <_>
      <rects>
        <_>
          7 11 9 6 -1.</_>
        <_>
          7 13 9 2 3.</_></rects>
      <tilted>0</tilted></_>
    <_>
      <rects>
        <_>
          7 13 6 6 -1.</_>
        <_>
          7 16 6 3 2.</_></rects>
      <tilted>0</tilted></_>
    <_>
      <rects>
        <_>
          7 25 5 6 -1.</_>
        <_>
          7 28 5 3 2.</_></rects>
      <tilted>0</tilted></_>
    <_>
      <rects>
        <_>
          8 6 6 4 -1.</_>
        <_>
          10 6 2 4 3.</_></rects>
      <tilted>0</tilted></_>
    <_>
      <rects>
        <_>
          8 12 8 4 -1.</_>
        <_>
          8 12 4 2 2.</_>
        <_>
          12 14 4 2 2.</_></rects>
      <tilted>0</tilted></_>
    <_>
      <rects>
        <_>
          8 22 6 4 -1.</_>
        <_>
          8 24 6 2 2.</_></rects>
      <tilted>0</tilted></_>
    <_>
      <rects>
        <_>
          9 1 10 10 -1.</_>
        <_>
          9 1 5 5 2.</_>
        <_>
          14 6 5 5 2.</_></rects>
      <tilted>0</tilted></_>
    <_>
      <rects>
        <_>
          9 2 5 15 -1.</_>
        <_>
          9 7 5 5 3.</_></rects>
      <tilted>0</tilted></_>
    <_>
      <rects>
        <_>
          9 6 10 30 -1.</_>
        <_>
          9 6 5 15 2.</_>
        <_>
          14 21 5 15 2.</_></rects>
      <tilted>0</tilted></_>
    <_>
      <rects>
        <_>
          9 14 2 9 -1.</_>
        <_>
          9 17 2 3 3.</_></rects>
      <tilted>0</tilted></_>
    <_>
      <rects>
        <_>
          10 2 8 36 -1.</_>
        <_>
          10 2 4 18 2.</_>
        <_>
          14 20 4 18 2.</_></rects>
      <tilted>0</tilted></_>
    <_>
      <rects>
        <_>
          10 3 4 8 -1.</_>
        <_>
          10 7 4 4 2.</_></rects>
      <tilted>0</tilted></_>
    <_>
      <rects>
        <_>
          10 6 8 32 -1.</_>
        <_>
          10 6 4 16 2.</_>
        <_>
          14 22 4 16 2.</_></rects>
      <tilted>0</tilted></_>
    <_>
      <rects>
        <_>
          10 13 9 10 -1.</_>
        <_>
          13 13 3 10 3.</_></rects>
      <tilted>0</tilted></_>
    <_>
      <rects>
        <_>
          15 12 5 9 -1.</_>
        <_>
          15 15 5 3 3.</_></rects>
      <tilted>0</tilted></_></features></cascade>
</opencv_storage>
