<?xml version="1.0"?>
<opencv_storage>
<cascade>
  <stageType>BOOST</stageType>
  <featureType>HAAR</featureType>
  <height>55</height>
  <width>25</width>
  <stageParams>
    <boostType>GAB</boostType>
    <minHitRate>9.9500000476837158e-01</minHitRate>
    <maxFalseAlarm>5.0000000000000000e-01</maxFalseAlarm>
    <weightTrimRate>9.4999998807907104e-01</weightTrimRate>
    <maxDepth>1</maxDepth>
    <maxWeakCount>100</maxWeakCount></stageParams>
  <featureParams>
    <maxCatCount>0</maxCatCount>
    <featSize>1</featSize>
    <mode>BASIC</mode></featureParams>
  <stageNum>19</stageNum>
  <stages>
    <!-- stage 0 -->
    <_>
      <maxWeakCount>3</maxWeakCount>
      <stageThreshold>-1.1709835529327393e+00</stageThreshold>
      <weakClassifiers>
        <_>
          <internalNodes>
            0 -1 51 8.0748051404953003e-02</internalNodes>
          <leafValues>
            -8.3292382955551147e-01 6.3758391141891479e-01</leafValues></_>
        <_>
          <internalNodes>
            0 -1 6 -2.2240702062845230e-02</internalNodes>
          <leafValues>
            5.1576632261276245e-01 -8.8329511880874634e-01</leafValues></_>
        <_>
          <internalNodes>
            0 -1 60 -9.6407942473888397e-03</internalNodes>
          <leafValues>
            5.4523539543151855e-01 -7.7501451969146729e-01</leafValues></_></weakClassifiers></_>
    <!-- stage 1 -->
    <_>
      <maxWeakCount>4</maxWeakCount>
      <stageThreshold>-1.3000082969665527e+00</stageThreshold>
      <weakClassifiers>
        <_>
          <internalNodes>
            0 -1 64 2.5316376239061356e-02</internalNodes>
          <leafValues>
            -7.3626375198364258e-01 9.0099012851715088e-01</leafValues></_>
        <_>
          <internalNodes>
            0 -1 58 -7.4636139906942844e-03</internalNodes>
          <leafValues>
            6.5646868944168091e-01 -7.2679221630096436e-01</leafValues></_>
        <_>
          <internalNodes>
            0 -1 65 1.0665880143642426e-01</internalNodes>
          <leafValues>
            -5.8872586488723755e-01 7.8587764501571655e-01</leafValues></_>
        <_>
          <internalNodes>
            0 -1 3 -7.5696185231208801e-02</internalNodes>
          <leafValues>
            7.5177347660064697e-01 -5.1833540201187134e-01</leafValues></_></weakClassifiers></_>
    <!-- stage 2 -->
    <_>
      <maxWeakCount>5</maxWeakCount>
      <stageThreshold>-1.4425206184387207e+00</stageThreshold>
      <weakClassifiers>
        <_>
          <internalNodes>
            0 -1 37 1.3992623984813690e-01</internalNodes>
          <leafValues>
            -7.0021414756774902e-01 9.3258428573608398e-01</leafValues></_>
        <_>
          <internalNodes>
            0 -1 76 -2.8083067387342453e-02</internalNodes>
          <leafValues>
            5.1165705919265747e-01 -6.7761242389678955e-01</leafValues></_>
        <_>
          <internalNodes>
            0 -1 35 -2.1155349910259247e-02</internalNodes>
          <leafValues>
            3.7706571817398071e-01 -8.2797753810882568e-01</leafValues></_>
        <_>
          <internalNodes>
            0 -1 39 -2.4674136657267809e-03</internalNodes>
          <leafValues>
            4.8765838146209717e-01 -7.0148575305938721e-01</leafValues></_>
        <_>
          <internalNodes>
            0 -1 19 -5.8088586665689945e-03</internalNodes>
          <leafValues>
            2.7549976110458374e-01 -9.7159934043884277e-01</leafValues></_></weakClassifiers></_>
    <!-- stage 3 -->
    <_>
      <maxWeakCount>2</maxWeakCount>
      <stageThreshold>-3.6996644735336304e-01</stageThreshold>
      <weakClassifiers>
        <_>
          <internalNodes>
            0 -1 74 1.9078139215707779e-02</internalNodes>
          <leafValues>
            -6.8220341205596924e-01 9.2857140302658081e-01</leafValues></_>
        <_>
          <internalNodes>
            0 -1 26 -3.2414875924587250e-02</internalNodes>
          <leafValues>
            -1. 3.1223693490028381e-01</leafValues></_></weakClassifiers></_>
    <!-- stage 4 -->
    <_>
      <maxWeakCount>4</maxWeakCount>
      <stageThreshold>-1.1324934959411621e+00</stageThreshold>
      <weakClassifiers>
        <_>
          <internalNodes>
            0 -1 41 1.1240804195404053e-01</internalNodes>
          <leafValues>
            -6.7659574747085571e-01 8.6046510934829712e-01</leafValues></_>
        <_>
          <internalNodes>
            0 -1 17 1.0535310953855515e-02</internalNodes>
          <leafValues>
            -6.6306769847869873e-01 7.0177578926086426e-01</leafValues></_>
        <_>
          <internalNodes>
            0 -1 0 -1.7590809613466263e-02</internalNodes>
          <leafValues>
            6.6738110780715942e-01 -5.9758412837982178e-01</leafValues></_>
        <_>
          <internalNodes>
            0 -1 46 1.2142945080995560e-02</internalNodes>
          <leafValues>
            -4.6021121740341187e-01 8.2159316539764404e-01</leafValues></_></weakClassifiers></_>
    <!-- stage 5 -->
    <_>
      <maxWeakCount>3</maxWeakCount>
      <stageThreshold>-7.7611273527145386e-01</stageThreshold>
      <weakClassifiers>
        <_>
          <internalNodes>
            0 -1 38 5.0695426762104034e-02</internalNodes>
          <leafValues>
            -7.6498800516128540e-01 5.3956836462020874e-01</leafValues></_>
        <_>
          <internalNodes>
            0 -1 75 9.6226796507835388e-02</internalNodes>
          <leafValues>
            -4.6906411647796631e-01 7.9502665996551514e-01</leafValues></_>
        <_>
          <internalNodes>
            0 -1 85 -1.0635498911142349e-03</internalNodes>
          <leafValues>
            4.5793941617012024e-01 -7.5404822826385498e-01</leafValues></_></weakClassifiers></_>
    <!-- stage 6 -->
    <_>
      <maxWeakCount>6</maxWeakCount>
      <stageThreshold>-9.3941539525985718e-01</stageThreshold>
      <weakClassifiers>
        <_>
          <internalNodes>
            0 -1 73 9.2757483944296837e-03</internalNodes>
          <leafValues>
            -7.0614033937454224e-01 7.7999997138977051e-01</leafValues></_>
        <_>
          <internalNodes>
            0 -1 59 -3.7064246833324432e-02</internalNodes>
          <leafValues>
            3.9365762472152710e-01 -6.5807145833969116e-01</leafValues></_>
        <_>
          <internalNodes>
            0 -1 42 2.5468209758400917e-02</internalNodes>
          <leafValues>
            -8.9778417348861694e-01 2.6769852638244629e-01</leafValues></_>
        <_>
          <internalNodes>
            0 -1 5 -8.3206570707261562e-04</internalNodes>
          <leafValues>
            5.7286894321441650e-01 -5.1760965585708618e-01</leafValues></_>
        <_>
          <internalNodes>
            0 -1 25 1.3134242035448551e-03</internalNodes>
          <leafValues>
            2.6977053284645081e-01 -8.6152297258377075e-01</leafValues></_>
        <_>
          <internalNodes>
            0 -1 53 1.0740958387032151e-03</internalNodes>
          <leafValues>
            -5.4176694154739380e-01 5.1869064569473267e-01</leafValues></_></weakClassifiers></_>
    <!-- stage 7 -->
    <_>
      <maxWeakCount>6</maxWeakCount>
      <stageThreshold>-8.8200205564498901e-01</stageThreshold>
      <weakClassifiers>
        <_>
          <internalNodes>
            0 -1 40 1.8383890390396118e-01</internalNodes>
          <leafValues>
            -6.7088609933853149e-01 9.0243899822235107e-01</leafValues></_>
        <_>
          <internalNodes>
            0 -1 15 -3.5181067883968353e-02</internalNodes>
          <leafValues>
            -8.7066751718521118e-01 2.3871710896492004e-01</leafValues></_>
        <_>
          <internalNodes>
            0 -1 8 -1.2166266096755862e-03</internalNodes>
          <leafValues>
            3.2846504449844360e-01 -6.8116712570190430e-01</leafValues></_>
        <_>
          <internalNodes>
            0 -1 54 6.3900044187903404e-03</internalNodes>
          <leafValues>
            2.6381102204322815e-01 -9.3580931425094604e-01</leafValues></_>
        <_>
          <internalNodes>
            0 -1 36 7.7605484984815121e-03</internalNodes>
          <leafValues>
            -6.5421980619430542e-01 3.5281884670257568e-01</leafValues></_>
        <_>
          <internalNodes>
            0 -1 57 2.4751981720328331e-02</internalNodes>
          <leafValues>
            -3.7376022338867188e-01 7.2408884763717651e-01</leafValues></_></weakClassifiers></_>
    <!-- stage 8 -->
    <_>
      <maxWeakCount>5</maxWeakCount>
      <stageThreshold>-1.1783478260040283e+00</stageThreshold>
      <weakClassifiers>
        <_>
          <internalNodes>
            0 -1 70 -4.6727240085601807e-02</internalNodes>
          <leafValues>
            9.4444441795349121e-01 -6.4462810754776001e-01</leafValues></_>
        <_>
          <internalNodes>
            0 -1 18 -3.3900081180036068e-03</internalNodes>
          <leafValues>
            -8.9184492826461792e-01 2.4089230597019196e-01</leafValues></_>
        <_>
          <internalNodes>
            0 -1 34 7.6902538537979126e-02</internalNodes>
          <leafValues>
            -6.2853783369064331e-01 3.7214630842208862e-01</leafValues></_>
        <_>
          <internalNodes>
            0 -1 7 -2.2073136642575264e-03</internalNodes>
          <leafValues>
            2.5185391306877136e-01 -9.2675858736038208e-01</leafValues></_>
        <_>
          <internalNodes>
            0 -1 55 4.5186333591118455e-04</internalNodes>
          <leafValues>
            -3.9792808890342712e-01 5.8757746219635010e-01</leafValues></_></weakClassifiers></_>
    <!-- stage 9 -->
    <_>
      <maxWeakCount>5</maxWeakCount>
      <stageThreshold>-9.8429757356643677e-01</stageThreshold>
      <weakClassifiers>
        <_>
          <internalNodes>
            0 -1 48 2.0910511910915375e-01</internalNodes>
          <leafValues>
            -6.3599181175231934e-01 1.</leafValues></_>
        <_>
          <internalNodes>
            0 -1 67 9.7489599138498306e-03</internalNodes>
          <leafValues>
            -4.9983415007591248e-01 5.0201153755187988e-01</leafValues></_>
        <_>
          <internalNodes>
            0 -1 66 1.4199355244636536e-01</internalNodes>
          <leafValues>
            -3.4969973564147949e-01 7.7281516790390015e-01</leafValues></_>
        <_>
          <internalNodes>
            0 -1 78 1.3339386321604252e-02</internalNodes>
          <leafValues>
            3.5653665661811829e-01 -7.6613527536392212e-01</leafValues></_>
        <_>
          <internalNodes>
            0 -1 31 7.9932762309908867e-03</internalNodes>
          <leafValues>
            2.6551771163940430e-01 -1.</leafValues></_></weakClassifiers></_>
    <!-- stage 10 -->
    <_>
      <maxWeakCount>5</maxWeakCount>
      <stageThreshold>-9.7652024030685425e-01</stageThreshold>
      <weakClassifiers>
        <_>
          <internalNodes>
            0 -1 24 2.1894615888595581e-01</internalNodes>
          <leafValues>
            -6.5546220541000366e-01 8.5000002384185791e-01</leafValues></_>
        <_>
          <internalNodes>
            0 -1 63 -3.8462127558887005e-03</internalNodes>
          <leafValues>
            -8.9906686544418335e-01 2.6825323700904846e-01</leafValues></_>
        <_>
          <internalNodes>
            0 -1 69 1.0721895378082991e-03</internalNodes>
          <leafValues>
            -4.9813845753669739e-01 4.8571595549583435e-01</leafValues></_>
        <_>
          <internalNodes>
            0 -1 50 -3.7946373224258423e-02</internalNodes>
          <leafValues>
            8.3015000820159912e-01 -3.0563801527023315e-01</leafValues></_>
        <_>
          <internalNodes>
            0 -1 84 4.1075973422266543e-04</internalNodes>
          <leafValues>
            -7.6413714885711670e-01 3.9793086051940918e-01</leafValues></_></weakClassifiers></_>
    <!-- stage 11 -->
    <_>
      <maxWeakCount>5</maxWeakCount>
      <stageThreshold>-1.1466072797775269e+00</stageThreshold>
      <weakClassifiers>
        <_>
          <internalNodes>
            0 -1 4 1.2660295702517033e-02</internalNodes>
          <leafValues>
            -6.4876031875610352e-01 9.7222220897674561e-01</leafValues></_>
        <_>
          <internalNodes>
            0 -1 61 -2.9498769436031580e-03</internalNodes>
          <leafValues>
            4.2620775103569031e-01 -5.3498882055282593e-01</leafValues></_>
        <_>
          <internalNodes>
            0 -1 49 -6.2881924211978912e-02</internalNodes>
          <leafValues>
            8.7493884563446045e-01 -3.7005937099456787e-01</leafValues></_>
        <_>
          <internalNodes>
            0 -1 11 2.6709593366831541e-03</internalNodes>
          <leafValues>
            3.2188904285430908e-01 -9.8926562070846558e-01</leafValues></_>
        <_>
          <internalNodes>
            0 -1 14 3.3081877045333385e-03</internalNodes>
          <leafValues>
            2.7447381615638733e-01 -8.7588435411453247e-01</leafValues></_></weakClassifiers></_>
    <!-- stage 12 -->
    <_>
      <maxWeakCount>5</maxWeakCount>
      <stageThreshold>-1.1098386049270630e+00</stageThreshold>
      <weakClassifiers>
        <_>
          <internalNodes>
            0 -1 13 7.7102296054363251e-02</internalNodes>
          <leafValues>
            -6.3561075925827026e-01 8.6301368474960327e-01</leafValues></_>
        <_>
          <internalNodes>
            0 -1 30 7.5406003743410110e-03</internalNodes>
          <leafValues>
            -5.7979530096054077e-01 4.8567897081375122e-01</leafValues></_>
        <_>
          <internalNodes>
            0 -1 71 -6.0527335153892636e-04</internalNodes>
          <leafValues>
            6.2107038497924805e-01 -4.3699121475219727e-01</leafValues></_>
        <_>
          <internalNodes>
            0 -1 80 -1.0524605400860310e-02</internalNodes>
          <leafValues>
            -8.5215300321578979e-01 3.1536155939102173e-01</leafValues></_>
        <_>
          <internalNodes>
            0 -1 87 -1.7400959040969610e-03</internalNodes>
          <leafValues>
            -7.9723894596099854e-01 3.2923743128776550e-01</leafValues></_></weakClassifiers></_>
    <!-- stage 13 -->
    <_>
      <maxWeakCount>5</maxWeakCount>
      <stageThreshold>-1.6234147548675537e+00</stageThreshold>
      <weakClassifiers>
        <_>
          <internalNodes>
            0 -1 1 9.5235981047153473e-02</internalNodes>
          <leafValues>
            -6.6386556625366211e-01 8.9999997615814209e-01</leafValues></_>
        <_>
          <internalNodes>
            0 -1 88 -2.8273197822272778e-03</internalNodes>
          <leafValues>
            4.7397717833518982e-01 -7.6701635122299194e-01</leafValues></_>
        <_>
          <internalNodes>
            0 -1 43 1.5982965007424355e-02</internalNodes>
          <leafValues>
            -5.5390405654907227e-01 5.7580190896987915e-01</leafValues></_>
        <_>
          <internalNodes>
            0 -1 72 -2.7866717427968979e-03</internalNodes>
          <leafValues>
            -7.5879096984863281e-01 4.0234020352363586e-01</leafValues></_>
        <_>
          <internalNodes>
            0 -1 2 -4.3626674450933933e-03</internalNodes>
          <leafValues>
            6.6016256809234619e-01 -4.4370341300964355e-01</leafValues></_></weakClassifiers></_>
    <!-- stage 14 -->
    <_>
      <maxWeakCount>5</maxWeakCount>
      <stageThreshold>-1.0441788434982300e+00</stageThreshold>
      <weakClassifiers>
        <_>
          <internalNodes>
            0 -1 62 2.6275068521499634e-02</internalNodes>
          <leafValues>
            -6.6736841201782227e-01 9.0123456716537476e-01</leafValues></_>
        <_>
          <internalNodes>
            0 -1 33 -9.0323796030133963e-04</internalNodes>
          <leafValues>
            3.2103723287582397e-01 -7.5698429346084595e-01</leafValues></_>
        <_>
          <internalNodes>
            0 -1 22 -1.7818264663219452e-02</internalNodes>
          <leafValues>
            -9.3279498815536499e-01 2.3392020165920258e-01</leafValues></_>
        <_>
          <internalNodes>
            0 -1 44 1.8044759333133698e-01</internalNodes>
          <leafValues>
            -3.4488779306411743e-01 1.</leafValues></_>
        <_>
          <internalNodes>
            0 -1 23 6.0743303038179874e-03</internalNodes>
          <leafValues>
            -5.7858347892761230e-01 5.7983517646789551e-01</leafValues></_></weakClassifiers></_>
    <!-- stage 15 -->
    <_>
      <maxWeakCount>4</maxWeakCount>
      <stageThreshold>-1.2363274097442627e+00</stageThreshold>
      <weakClassifiers>
        <_>
          <internalNodes>
            0 -1 12 2.5846409797668457e-01</internalNodes>
          <leafValues>
            -6.2932789325714111e-01 1.</leafValues></_>
        <_>
          <internalNodes>
            0 -1 86 1.4428430004045367e-03</internalNodes>
          <leafValues>
            -7.1774506568908691e-01 3.2629838585853577e-01</leafValues></_>
        <_>
          <internalNodes>
            0 -1 45 1.2728208093903959e-04</internalNodes>
          <leafValues>
            -6.4205700159072876e-01 3.6656743288040161e-01</leafValues></_>
        <_>
          <internalNodes>
            0 -1 9 -1.2955241254530847e-04</internalNodes>
          <leafValues>
            2.8491955995559692e-01 -8.7652534246444702e-01</leafValues></_></weakClassifiers></_>
    <!-- stage 16 -->
    <_>
      <maxWeakCount>6</maxWeakCount>
      <stageThreshold>-1.0702660083770752e+00</stageThreshold>
      <weakClassifiers>
        <_>
          <internalNodes>
            0 -1 10 2.4863143265247345e-01</internalNodes>
          <leafValues>
            -6.5145230293273926e-01 9.4594591856002808e-01</leafValues></_>
        <_>
          <internalNodes>
            0 -1 68 8.4671843796968460e-03</internalNodes>
          <leafValues>
            -3.8714382052421570e-01 6.7333304882049561e-01</leafValues></_>
        <_>
          <internalNodes>
            0 -1 47 -1.8001277931034565e-03</internalNodes>
          <leafValues>
            5.8969086408615112e-01 -4.2127224802970886e-01</leafValues></_>
        <_>
          <internalNodes>
            0 -1 20 -1.2779393000528216e-03</internalNodes>
          <leafValues>
            -8.1038570404052734e-01 3.1728571653366089e-01</leafValues></_>
        <_>
          <internalNodes>
            0 -1 28 -1.6669073374941945e-03</internalNodes>
          <leafValues>
            -6.1971473693847656e-01 4.0700489282608032e-01</leafValues></_>
        <_>
          <internalNodes>
            0 -1 52 3.3599920570850372e-02</internalNodes>
          <leafValues>
            -3.1893178820610046e-01 8.9172232151031494e-01</leafValues></_></weakClassifiers></_>
    <!-- stage 17 -->
    <_>
      <maxWeakCount>6</maxWeakCount>
      <stageThreshold>-1.5520311594009399e+00</stageThreshold>
      <weakClassifiers>
        <_>
          <internalNodes>
            0 -1 16 1.8186483532190323e-02</internalNodes>
          <leafValues>
            -6.8421053886413574e-01 1.</leafValues></_>
        <_>
          <internalNodes>
            0 -1 83 -4.4942861422896385e-03</internalNodes>
          <leafValues>
            -7.0441597700119019e-01 3.2734996080398560e-01</leafValues></_>
        <_>
          <internalNodes>
            0 -1 32 -2.4878385011106730e-04</internalNodes>
          <leafValues>
            -7.1598273515701294e-01 3.7939253449440002e-01</leafValues></_>
        <_>
          <internalNodes>
            0 -1 79 -2.2322429867926985e-04</internalNodes>
          <leafValues>
            6.7860454320907593e-01 -4.3682396411895752e-01</leafValues></_>
        <_>
          <internalNodes>
            0 -1 56 -5.0312274834141135e-04</internalNodes>
          <leafValues>
            6.9997853040695190e-01 -4.0195152163505554e-01</leafValues></_>
        <_>
          <internalNodes>
            0 -1 89 -1.2680031359195709e-03</internalNodes>
          <leafValues>
            -9.0453362464904785e-01 3.5958769917488098e-01</leafValues></_></weakClassifiers></_>
    <!-- stage 18 -->
    <_>
      <maxWeakCount>6</maxWeakCount>
      <stageThreshold>-7.0633876323699951e-01</stageThreshold>
      <weakClassifiers>
        <_>
          <internalNodes>
            0 -1 27 2.3181377351284027e-01</internalNodes>
          <leafValues>
            -6.9133192300796509e-01 1.</leafValues></_>
        <_>
          <internalNodes>
            0 -1 77 -5.8736023493111134e-04</internalNodes>
          <leafValues>
            -8.5818409919738770e-01 3.9825567603111267e-01</leafValues></_>
        <_>
          <internalNodes>
            0 -1 81 -1.6837926814332604e-03</internalNodes>
          <leafValues>
            -6.3115900754928589e-01 6.3249659538269043e-01</leafValues></_>
        <_>
          <internalNodes>
            0 -1 21 -5.8842916041612625e-03</internalNodes>
          <leafValues>
            1. -3.8185229897499084e-01</leafValues></_>
        <_>
          <internalNodes>
            0 -1 29 2.8992630541324615e-04</internalNodes>
          <leafValues>
            -3.5625472664833069e-01 9.3238955736160278e-01</leafValues></_>
        <_>
          <internalNodes>
            0 -1 82 -7.3061484727077186e-05</internalNodes>
          <leafValues>
            1. -3.0765208601951599e-01</leafValues></_></weakClassifiers></_></stages>
  <features>
    <_>
      <rects>
        <_>
          0 0 19 12 -1.</_>
        <_>
          0 4 19 4 3.</_></rects>
      <tilted>0</tilted></_>
    <_>
      <rects>
        <_>
          0 7 16 10 -1.</_>
        <_>
          8 7 8 10 2.</_></rects>
      <tilted>0</tilted></_>
    <_>
      <rects>
        <_>
          0 7 24 12 -1.</_>
        <_>
          8 7 8 12 3.</_></rects>
      <tilted>0</tilted></_>
    <_>
      <rects>
        <_>
          0 8 12 46 -1.</_>
        <_>
          0 8 6 23 2.</_>
        <_>
          6 31 6 23 2.</_></rects>
      <tilted>0</tilted></_>
    <_>
      <rects>
        <_>
          0 11 18 1 -1.</_>
        <_>
          9 11 9 1 2.</_></rects>
      <tilted>0</tilted></_>
    <_>
      <rects>
        <_>
          0 17 18 1 -1.</_>
        <_>
          6 17 6 1 3.</_></rects>
      <tilted>0</tilted></_>
    <_>
      <rects>
        <_>
          0 22 14 32 -1.</_>
        <_>
          0 22 7 16 2.</_>
        <_>
          7 38 7 16 2.</_></rects>
      <tilted>0</tilted></_>
    <_>
      <rects>
        <_>
          0 25 12 30 -1.</_>
        <_>
          0 25 6 15 2.</_>
        <_>
          6 40 6 15 2.</_></rects>
      <tilted>0</tilted></_>
    <_>
      <rects>
        <_>
          0 39 6 11 -1.</_>
        <_>
          3 39 3 11 2.</_></rects>
      <tilted>0</tilted></_>
    <_>
      <rects>
        <_>
          0 52 14 2 -1.</_>
        <_>
          7 52 7 2 2.</_></rects>
      <tilted>0</tilted></_>
    <_>
      <rects>
        <_>
          1 0 24 27 -1.</_>
        <_>
          9 0 8 27 3.</_></rects>
      <tilted>0</tilted></_>
    <_>
      <rects>
        <_>
          1 3 1 18 -1.</_>
        <_>
          1 9 1 6 3.</_></rects>
      <tilted>0</tilted></_>
    <_>
      <rects>
        <_>
          1 4 24 17 -1.</_>
        <_>
          9 4 8 17 3.</_></rects>
      <tilted>0</tilted></_>
    <_>
      <rects>
        <_>
          1 10 24 3 -1.</_>
        <_>
          9 10 8 3 3.</_></rects>
      <tilted>0</tilted></_>
    <_>
      <rects>
        <_>
          1 11 4 24 -1.</_>
        <_>
          1 19 4 8 3.</_></rects>
      <tilted>0</tilted></_>
    <_>
      <rects>
        <_>
          1 13 7 42 -1.</_>
        <_>
          1 27 7 14 3.</_></rects>
      <tilted>0</tilted></_>
    <_>
      <rects>
        <_>
          1 13 24 1 -1.</_>
        <_>
          9 13 8 1 3.</_></rects>
      <tilted>0</tilted></_>
    <_>
      <rects>
        <_>
          1 16 17 10 -1.</_>
        <_>
          1 21 17 5 2.</_></rects>
      <tilted>0</tilted></_>
    <_>
      <rects>
        <_>
          1 18 4 26 -1.</_>
        <_>
          1 31 4 13 2.</_></rects>
      <tilted>0</tilted></_>
    <_>
      <rects>
        <_>
          1 19 12 24 -1.</_>
        <_>
          1 19 6 12 2.</_>
        <_>
          7 31 6 12 2.</_></rects>
      <tilted>0</tilted></_>
    <_>
      <rects>
        <_>
          1 27 5 10 -1.</_>
        <_>
          1 32 5 5 2.</_></rects>
      <tilted>0</tilted></_>
    <_>
      <rects>
        <_>
          2 0 12 6 -1.</_>
        <_>
          2 2 12 2 3.</_></rects>
      <tilted>0</tilted></_>
    <_>
      <rects>
        <_>
          2 3 5 18 -1.</_>
        <_>
          2 12 5 9 2.</_></rects>
      <tilted>0</tilted></_>
    <_>
      <rects>
        <_>
          2 8 23 9 -1.</_>
        <_>
          2 11 23 3 3.</_></rects>
      <tilted>0</tilted></_>
    <_>
      <rects>
        <_>
          2 10 21 19 -1.</_>
        <_>
          9 10 7 19 3.</_></rects>
      <tilted>0</tilted></_>
    <_>
      <rects>
        <_>
          2 21 3 18 -1.</_>
        <_>
          2 27 3 6 3.</_></rects>
      <tilted>0</tilted></_>
    <_>
      <rects>
        <_>
          2 29 20 24 -1.</_>
        <_>
          2 41 20 12 2.</_></rects>
      <tilted>0</tilted></_>
    <_>
      <rects>
        <_>
          3 9 21 26 -1.</_>
        <_>
          10 9 7 26 3.</_></rects>
      <tilted>0</tilted></_>
    <_>
      <rects>
        <_>
          3 16 2 29 -1.</_>
        <_>
          4 16 1 29 2.</_></rects>
      <tilted>0</tilted></_>
    <_>
      <rects>
        <_>
          4 1 7 4 -1.</_>
        <_>
          4 3 7 2 2.</_></rects>
      <tilted>0</tilted></_>
    <_>
      <rects>
        <_>
          4 17 19 8 -1.</_>
        <_>
          4 21 19 4 2.</_></rects>
      <tilted>0</tilted></_>
    <_>
      <rects>
        <_>
          4 19 4 18 -1.</_>
        <_>
          4 28 4 9 2.</_></rects>
      <tilted>0</tilted></_>
    <_>
      <rects>
        <_>
          4 52 9 3 -1.</_>
        <_>
          4 53 9 1 3.</_></rects>
      <tilted>0</tilted></_>
    <_>
      <rects>
        <_>
          5 5 4 16 -1.</_>
        <_>
          5 13 4 8 2.</_></rects>
      <tilted>0</tilted></_>
    <_>
      <rects>
        <_>
          5 14 20 40 -1.</_>
        <_>
          5 14 10 20 2.</_>
        <_>
          15 34 10 20 2.</_></rects>
      <tilted>0</tilted></_>
    <_>
      <rects>
        <_>
          5 20 14 28 -1.</_>
        <_>
          5 34 14 14 2.</_></rects>
      <tilted>0</tilted></_>
    <_>
      <rects>
        <_>
          5 20 16 9 -1.</_>
        <_>
          5 23 16 3 3.</_></rects>
      <tilted>0</tilted></_>
    <_>
      <rects>
        <_>
          6 0 11 27 -1.</_>
        <_>
          6 9 11 9 3.</_></rects>
      <tilted>0</tilted></_>
    <_>
      <rects>
        <_>
          6 10 12 19 -1.</_>
        <_>
          10 10 4 19 3.</_></rects>
      <tilted>0</tilted></_>
    <_>
      <rects>
        <_>
          6 12 8 6 -1.</_>
        <_>
          6 15 8 3 2.</_></rects>
      <tilted>0</tilted></_>
    <_>
      <rects>
        <_>
          7 1 11 24 -1.</_>
        <_>
          7 9 11 8 3.</_></rects>
      <tilted>0</tilted></_>
    <_>
      <rects>
        <_>
          7 4 12 18 -1.</_>
        <_>
          7 10 12 6 3.</_></rects>
      <tilted>0</tilted></_>
    <_>
      <rects>
        <_>
          7 11 18 44 -1.</_>
        <_>
          7 11 9 22 2.</_>
        <_>
          16 33 9 22 2.</_></rects>
      <tilted>0</tilted></_>
    <_>
      <rects>
        <_>
          7 13 9 33 -1.</_>
        <_>
          10 13 3 33 3.</_></rects>
      <tilted>0</tilted></_>
    <_>
      <rects>
        <_>
          7 16 11 24 -1.</_>
        <_>
          7 24 11 8 3.</_></rects>
      <tilted>0</tilted></_>
    <_>
      <rects>
        <_>
          7 20 4 2 -1.</_>
        <_>
          7 21 4 1 2.</_></rects>
      <tilted>0</tilted></_>
    <_>
      <rects>
        <_>
          7 26 11 12 -1.</_>
        <_>
          7 30 11 4 3.</_></rects>
      <tilted>0</tilted></_>
    <_>
      <rects>
        <_>
          8 22 16 4 -1.</_>
        <_>
          8 22 8 2 2.</_>
        <_>
          16 24 8 2 2.</_></rects>
      <tilted>0</tilted></_>
    <_>
      <rects>
        <_>
          9 0 8 27 -1.</_>
        <_>
          9 9 8 9 3.</_></rects>
      <tilted>0</tilted></_>
    <_>
      <rects>
        <_>
          9 10 5 18 -1.</_>
        <_>
          9 16 5 6 3.</_></rects>
      <tilted>0</tilted></_>
    <_>
      <rects>
        <_>
          9 12 4 18 -1.</_>
        <_>
          9 18 4 6 3.</_></rects>
      <tilted>0</tilted></_>
    <_>
      <rects>
        <_>
          9 13 14 42 -1.</_>
        <_>
          9 13 7 21 2.</_>
        <_>
          16 34 7 21 2.</_></rects>
      <tilted>0</tilted></_>
    <_>
      <rects>
        <_>
          9 19 4 15 -1.</_>
        <_>
          9 24 4 5 3.</_></rects>
      <tilted>0</tilted></_>
    <_>
      <rects>
        <_>
          9 21 3 4 -1.</_>
        <_>
          9 23 3 2 2.</_></rects>
      <tilted>0</tilted></_>
    <_>
      <rects>
        <_>
          9 27 8 24 -1.</_>
        <_>
          9 39 8 12 2.</_></rects>
      <tilted>0</tilted></_>
    <_>
      <rects>
        <_>
          9 31 7 2 -1.</_>
        <_>
          9 32 7 1 2.</_></rects>
      <tilted>0</tilted></_>
    <_>
      <rects>
        <_>
          9 35 6 6 -1.</_>
        <_>
          9 37 6 2 3.</_></rects>
      <tilted>0</tilted></_>
    <_>
      <rects>
        <_>
          10 6 4 15 -1.</_>
        <_>
          10 11 4 5 3.</_></rects>
      <tilted>0</tilted></_>
    <_>
      <rects>
        <_>
          10 10 4 15 -1.</_>
        <_>
          10 15 4 5 3.</_></rects>
      <tilted>0</tilted></_>
    <_>
      <rects>
        <_>
          10 23 15 23 -1.</_>
        <_>
          15 23 5 23 3.</_></rects>
      <tilted>0</tilted></_>
    <_>
      <rects>
        <_>
          10 24 15 6 -1.</_>
        <_>
          15 24 5 6 3.</_></rects>
      <tilted>0</tilted></_>
    <_>
      <rects>
        <_>
          10 44 15 4 -1.</_>
        <_>
          15 44 5 4 3.</_></rects>
      <tilted>0</tilted></_>
    <_>
      <rects>
        <_>
          11 0 1 27 -1.</_>
        <_>
          11 9 1 9 3.</_></rects>
      <tilted>0</tilted></_>
    <_>
      <rects>
        <_>
          11 1 14 4 -1.</_>
        <_>
          18 1 7 4 2.</_></rects>
      <tilted>0</tilted></_>
    <_>
      <rects>
        <_>
          11 4 3 18 -1.</_>
        <_>
          11 10 3 6 3.</_></rects>
      <tilted>0</tilted></_>
    <_>
      <rects>
        <_>
          11 11 14 44 -1.</_>
        <_>
          11 11 7 22 2.</_>
        <_>
          18 33 7 22 2.</_></rects>
      <tilted>0</tilted></_>
    <_>
      <rects>
        <_>
          11 13 14 42 -1.</_>
        <_>
          11 13 7 21 2.</_>
        <_>
          18 34 7 21 2.</_></rects>
      <tilted>0</tilted></_>
    <_>
      <rects>
        <_>
          11 18 4 12 -1.</_>
        <_>
          11 22 4 4 3.</_></rects>
      <tilted>0</tilted></_>
    <_>
      <rects>
        <_>
          11 28 5 12 -1.</_>
        <_>
          11 32 5 4 3.</_></rects>
      <tilted>0</tilted></_>
    <_>
      <rects>
        <_>
          11 31 4 6 -1.</_>
        <_>
          11 33 4 2 3.</_></rects>
      <tilted>0</tilted></_>
    <_>
      <rects>
        <_>
          12 7 2 34 -1.</_>
        <_>
          12 24 2 17 2.</_></rects>
      <tilted>0</tilted></_>
    <_>
      <rects>
        <_>
          12 34 1 9 -1.</_>
        <_>
          12 37 1 3 3.</_></rects>
      <tilted>0</tilted></_>
    <_>
      <rects>
        <_>
          12 37 3 16 -1.</_>
        <_>
          12 45 3 8 2.</_></rects>
      <tilted>0</tilted></_>
    <_>
      <rects>
        <_>
          13 1 1 14 -1.</_>
        <_>
          13 8 1 7 2.</_></rects>
      <tilted>0</tilted></_>
    <_>
      <rects>
        <_>
          13 3 1 21 -1.</_>
        <_>
          13 10 1 7 3.</_></rects>
      <tilted>0</tilted></_>
    <_>
      <rects>
        <_>
          13 11 12 40 -1.</_>
        <_>
          13 11 6 20 2.</_>
        <_>
          19 31 6 20 2.</_></rects>
      <tilted>0</tilted></_>
    <_>
      <rects>
        <_>
          13 13 12 25 -1.</_>
        <_>
          17 13 4 25 3.</_></rects>
      <tilted>0</tilted></_>
    <_>
      <rects>
        <_>
          13 45 12 3 -1.</_>
        <_>
          13 46 12 1 3.</_></rects>
      <tilted>0</tilted></_>
    <_>
      <rects>
        <_>
          14 10 11 27 -1.</_>
        <_>
          14 19 11 9 3.</_></rects>
      <tilted>0</tilted></_>
    <_>
      <rects>
        <_>
          16 9 2 4 -1.</_>
        <_>
          16 11 2 2 2.</_></rects>
      <tilted>0</tilted></_>
    <_>
      <rects>
        <_>
          17 31 3 21 -1.</_>
        <_>
          17 38 3 7 3.</_></rects>
      <tilted>0</tilted></_>
    <_>
      <rects>
        <_>
          18 2 4 26 -1.</_>
        <_>
          18 2 2 13 2.</_>
        <_>
          20 15 2 13 2.</_></rects>
      <tilted>0</tilted></_>
    <_>
      <rects>
        <_>
          18 3 3 2 -1.</_>
        <_>
          18 4 3 1 2.</_></rects>
      <tilted>0</tilted></_>
    <_>
      <rects>
        <_>
          18 13 2 26 -1.</_>
        <_>
          18 26 2 13 2.</_></rects>
      <tilted>0</tilted></_>
    <_>
      <rects>
        <_>
          18 33 1 22 -1.</_>
        <_>
          18 44 1 11 2.</_></rects>
      <tilted>0</tilted></_>
    <_>
      <rects>
        <_>
          19 1 2 18 -1.</_>
        <_>
          19 10 2 9 2.</_></rects>
      <tilted>0</tilted></_>
    <_>
      <rects>
        <_>
          19 27 6 11 -1.</_>
        <_>
          22 27 3 11 2.</_></rects>
      <tilted>0</tilted></_>
    <_>
      <rects>
        <_>
          20 34 4 16 -1.</_>
        <_>
          20 42 4 8 2.</_></rects>
      <tilted>0</tilted></_>
    <_>
      <rects>
        <_>
          21 4 3 30 -1.</_>
        <_>
          21 14 3 10 3.</_></rects>
      <tilted>0</tilted></_>
    <_>
      <rects>
        <_>
          22 38 3 8 -1.</_>
        <_>
          22 42 3 4 2.</_></rects>
      <tilted>0</tilted></_></features></cascade>
</opencv_storage>
